{
  "version": 2,
  "trainedAt": "2026-02-26T02:51:02.764Z",
  "dataset": "archive/rvf10k",
  "modelType": "logistic_regression",
  "transform": "zscore_poly2",
  "featureNames": [
    "rMean",
    "gMean",
    "bMean",
    "rStd",
    "gStd",
    "bStd",
    "grayMean",
    "grayStd",
    "edgeMean",
    "edgeStd",
    "laplaceMean",
    "laplaceStd",
    "hfEnergy",
    "blockinessH",
    "blockinessV",
    "centerBrightnessDelta",
    "centerContrastDelta",
    "rgCorr",
    "rbCorr",
    "gbCorr",
    "histR0",
    "histR1",
    "histR2",
    "histR3",
    "histR4",
    "histR5",
    "histR6",
    "histR7",
    "histG0",
    "histG1",
    "histG2",
    "histG3",
    "histG4",
    "histG5",
    "histG6",
    "histG7",
    "histB0",
    "histB1",
    "histB2",
    "histB3",
    "histB4",
    "histB5",
    "histB6",
    "histB7",
    "lbp0",
    "lbp1",
    "lbp2",
    "lbp3",
    "lbp4",
    "lbp5",
    "lbp6",
    "lbp7",
    "lbp8",
    "lbp9",
    "lbp10",
    "lbp11",
    "lbp12",
    "lbp13",
    "lbp14",
    "lbp15"
  ],
  "featureMean": [
    0.5220396567776324,
    0.4263010766441924,
    0.38048153169251653,
    0.24764548510565493,
    0.22194673726866432,
    0.21896324165029396,
    0.449703483979609,
    0.22322991962560113,
    0.27530960821102046,
    0.3335626820770293,
    0.0642766747110458,
    0.09096977253266203,
    0.019132287230975046,
    0.030821547214140377,
    0.028979372386486082,
    0.09946646525485975,
    -0.04455485295342516,
    0.9039595282100328,
    0.8312311210767798,
    0.944820161618263,
    0.10321239149305549,
    0.11420920138888903,
    0.11282141927083336,
    0.12138611111111097,
    0.1381097656250003,
    0.15530792100694432,
    0.1466425781249999,
    0.10831061197916649,
    0.14016948784722208,
    0.15070796440972253,
    0.15219416232638885,
    0.16500115017361128,
    0.15654720052083343,
    0.11698346354166658,
    0.07289168836805558,
    0.04550488281249999,
    0.18207730034722255,
    0.17957803819444434,
    0.172634982638889,
    0.15920190972222234,
    0.12411573350694437,
    0.08233003472222214,
    0.05423381076388883,
    0.04582819010416669,
    0.15353259805230676,
    0.08373333155299181,
    0.027953319446669844,
    0.08559948548131525,
    0.020599596752657174,
    0.010716520678666179,
    0.018982156527622005,
    0.07937449927896167,
    0.08303018568961515,
    0.019495473481813814,
    0.011799969734195021,
    0.023752670512204244,
    0.08241892770033307,
    0.02804689864516015,
    0.09048957164984235,
    0.18047479481564585
  ],
  "featureStd": [
    0.11568736665116842,
    0.11105409821557805,
    0.11700920563863171,
    0.04869032763512555,
    0.04444179129634639,
    0.04916821612346598,
    0.10901416474832985,
    0.04237489929327824,
    0.062435208189359034,
    0.07182944026586531,
    0.018197163779124795,
    0.024839149680595824,
    0.005361526905194343,
    0.0075828048317472755,
    0.0077012919984970835,
    0.13434165116469768,
    0.05570097466217059,
    0.09629697464739032,
    0.15174749305210058,
    0.09301856007621236,
    0.11460910131995984,
    0.07380018115094315,
    0.06487253775217933,
    0.06749457807430065,
    0.07299185568505612,
    0.08257615015136283,
    0.09677682752929861,
    0.11563406259204713,
    0.13360055189011646,
    0.07999008345799337,
    0.06997082226682258,
    0.07536550276907666,
    0.07656207808882184,
    0.08012000817708784,
    0.08254180714941992,
    0.08021675413044933,
    0.1537741062261273,
    0.08791720754250872,
    0.07373564050365819,
    0.07539288213249254,
    0.07381917942172528,
    0.07123077475914442,
    0.07183974264999177,
    0.08244254532492369,
    0.01784338788036007,
    0.015862668531232405,
    0.006031620212405573,
    0.015385967413443941,
    0.0036057905596896156,
    0.00230187205319454,
    0.0029892168796490275,
    0.013240835316434557,
    0.017951328566331144,
    0.003096471912915253,
    0.002315285957539449,
    0.004285075285726936,
    0.015298211726692892,
    0.006061326011167763,
    0.015411982955701554,
    0.031747768804309046
  ],
  "weights": [
    0.018399515129767226,
    0.012093072760724284,
    -0.030915384350286533,
    0.10383624392718024,
    0.04732606257879358,
    0.03044955603616402,
    0.009286860764240705,
    0.03989951792994779,
    -0.01480878953186324,
    0.09561916811679552,
    0.06824794435585055,
    0.20679633356122254,
    0.07118542264779937,
    -0.008616982402826776,
    0.016193545309836067,
    -0.03420362169308786,
    -0.083437893833367,
    -0.11770220180663474,
    -0.17823400820188673,
    -0.1310278685901599,
    0.0012579659830051916,
    -0.05303895884458727,
    -0.011979692967772652,
    0.05522844776324498,
    -0.0045888051138482135,
    0.025186042946499416,
    -0.05510636275615272,
    0.0381188771439705,
    0.005445306038397418,
    -0.02058203727096247,
    0.00517222948802604,
    -0.03760998905967004,
    -0.026912364134385802,
    0.009284638958855477,
    0.06339695771574548,
    -0.006543080890329452,
    0.04206564349524066,
    -0.015866145351417223,
    -0.008445561830058535,
    0.00038636150435241226,
    -0.028255017801898687,
    -0.005182645744366689,
    0.0007881492988439697,
    -0.02525132949487546,
    -0.15341912873492589,
    -0.024149360493990687,
    -0.03715692609782342,
    -0.058279298531059696,
    0.07102226463267845,
    0.02963114892107444,
    0.01473988155021492,
    0.00013440435804070372,
    -0.01919748832417689,
    -0.07207366399023438,
    -0.03541802107057848,
    0.08416262020438828,
    0.027363394425728042,
    -0.046820079147445966,
    -0.05716418831648311,
    0.154549435964196,
    -0.02063592340055519,
    0.07521937893505058,
    0.05492232474651161,
    0.01874857096344565,
    -0.04236430556557099,
    -0.055806173254652425,
    0.05859484823877004,
    -0.04582151188603075,
    0.023809591077006517,
    0.0007119009615055122,
    -0.07201315077393546,
    0.017233355594101465,
    -0.008450577275354549,
    0.029808773558734077,
    -0.041129456451227335,
    -0.033996367384182984,
    -0.06246937386263254,
    -0.023258776118511983,
    0.002359166466786015,
    -0.01584464321652207,
    -0.1054003970560782,
    -0.0008453592336574573,
    -0.01557255328436636,
    0.0372773667539449,
    -0.0015933015434730403,
    0.009193974596911302,
    -0.01948987342972021,
    0.03260512385237608,
    -0.05203203784056719,
    0.0747078423993418,
    0.010644263212183976,
    -0.03466567263709588,
    0.012206510515346668,
    -0.03257827296288934,
    -0.014203369958752163,
    -0.0830747699305623,
    0.011574876658213528,
    0.01310017186357981,
    -0.0010499056053701302,
    0.0012459365698361848,
    -0.0007343467320768614,
    -0.04943367023431476,
    -0.03250910250716603,
    -0.057480989644657136,
    0.03870780653056681,
    -0.012728617639395126,
    0.02892988081377266,
    0.0846062159284296,
    0.014276805622973517,
    0.033862072569908135,
    0.048646231805110685,
    0.011308381491876655,
    0.015026202577193233,
    -0.0037159108481200644,
    -0.008387411973829452,
    -0.05445335523507756,
    -0.0021444743168795868,
    0.06400526567830528,
    0.03989368349223173,
    0.04229478682465944
  ],
  "bias": 0.05677559511042739,
  "metrics": {
    "validAccuracy": 0.6583333333333333,
    "validBrier": 0.21922295694107044,
    "trainCount": 1800,
    "validCount": 600,
    "epochs": 180,
    "learningRate": 0.035,
    "l2": 0.002
  }
}