{
  "version": 2,
  "trainedAt": "2026-02-26T03:04:24.474Z",
  "dataset": "archive/rvf10k",
  "modelType": "logistic_regression",
  "transform": "zscore_poly2",
  "featureNames": [
    "rMean",
    "gMean",
    "bMean",
    "rStd",
    "gStd",
    "bStd",
    "grayMean",
    "grayStd",
    "edgeMean",
    "edgeStd",
    "laplaceMean",
    "laplaceStd",
    "hfEnergy",
    "blockinessH",
    "blockinessV",
    "centerBrightnessDelta",
    "centerContrastDelta",
    "rgCorr",
    "rbCorr",
    "gbCorr",
    "histR0",
    "histR1",
    "histR2",
    "histR3",
    "histR4",
    "histR5",
    "histR6",
    "histR7",
    "histG0",
    "histG1",
    "histG2",
    "histG3",
    "histG4",
    "histG5",
    "histG6",
    "histG7",
    "histB0",
    "histB1",
    "histB2",
    "histB3",
    "histB4",
    "histB5",
    "histB6",
    "histB7",
    "lbp0",
    "lbp1",
    "lbp2",
    "lbp3",
    "lbp4",
    "lbp5",
    "lbp6",
    "lbp7",
    "lbp8",
    "lbp9",
    "lbp10",
    "lbp11",
    "lbp12",
    "lbp13",
    "lbp14",
    "lbp15"
  ],
  "featureMean": [
    0.5207348057269712,
    0.4251459411655218,
    0.3808579083508185,
    0.24756887642718892,
    0.22205465867897134,
    0.21935734679088303,
    0.44867817592852854,
    0.22332444198631496,
    0.27613377090989755,
    0.3345535691082582,
    0.06434372929042168,
    0.0909548621293864,
    0.01916381398550282,
    0.03088791805137604,
    0.02905062088446091,
    0.09907854672281885,
    -0.0447662374159649,
    0.9049583357928537,
    0.8296989528386717,
    0.9445618961163244,
    0.10347776227678587,
    0.11472573939732138,
    0.1129577706473213,
    0.12164111328124992,
    0.13937212611607191,
    0.15560500837053592,
    0.14624594029017823,
    0.10597453962053548,
    0.14061696428571396,
    0.15225115792410726,
    0.15245076729910706,
    0.1644410156250002,
    0.15651298828125004,
    0.11649317801339282,
    0.07219101562499995,
    0.04504291294642858,
    0.1805291713169638,
    0.18107477678571474,
    0.17252180524553581,
    0.15955703124999984,
    0.12393090122767822,
    0.08193441685267859,
    0.05469782366071424,
    0.04575407366071425,
    0.15363504875592307,
    0.08376294721541884,
    0.027999390550964794,
    0.0854587892279167,
    0.020607803808913416,
    0.010702497310412683,
    0.018940645958752025,
    0.07949092407352291,
    0.08306384050175096,
    0.019489007027262167,
    0.011799076384279048,
    0.02375402007462179,
    0.08244231693638832,
    0.028110951198297002,
    0.09032204946551589,
    0.18042069151006038
  ],
  "featureStd": [
    0.11451207279511517,
    0.11012826181520627,
    0.11562384890956301,
    0.048194672015147925,
    0.04426770073728517,
    0.049525973092431085,
    0.10786496239621537,
    0.04226959572716978,
    0.06198306086503538,
    0.07201366945645797,
    0.017825684499680368,
    0.024287199199378117,
    0.005263208984146293,
    0.007513399532550949,
    0.007595589431870892,
    0.13475228914025764,
    0.056691818285805176,
    0.09597372190993601,
    0.15534764493688727,
    0.09273013307928689,
    0.11383977499686616,
    0.07355048735286357,
    0.06580249661102769,
    0.06704199180063004,
    0.07379571546449927,
    0.08396825534285607,
    0.09646685400994044,
    0.11283097119327558,
    0.1334381776202398,
    0.07962595603469749,
    0.07030211928579415,
    0.07572279912298491,
    0.0779850340610499,
    0.07967562764024032,
    0.08054415408109863,
    0.07925952507493357,
    0.15353160928879392,
    0.08746580678505833,
    0.07332737488117563,
    0.07629950716180552,
    0.07414345803518815,
    0.0702565747672048,
    0.07148967843121999,
    0.08165456933774394,
    0.017982325327118763,
    0.015911358608060387,
    0.005981357223016817,
    0.01499014478237913,
    0.0035931752769592135,
    0.0022917408907406384,
    0.0029648000664969127,
    0.013170392795686879,
    0.01781663718333161,
    0.003110440716327416,
    0.0023011387465480333,
    0.004275036865909121,
    0.01559786213749809,
    0.0060406895037857416,
    0.015403841010534394,
    0.0321597362165678
  ],
  "weights": [
    0.017670649545581823,
    0.003790114313536496,
    -0.021008816462203855,
    0.09274401675798001,
    0.045148681017082595,
    0.028611756611147506,
    0.005313316106578872,
    0.036033385742743514,
    -0.028443540766110196,
    0.06561251003105598,
    0.0641697221252448,
    0.20037168535096594,
    0.0600468586403366,
    -0.014464965965277597,
    0.010374551652753116,
    -0.04005407698283437,
    -0.03774356951251744,
    -0.11097908888798182,
    -0.15753003965093124,
    -0.13792915382763377,
    -0.00227478191484191,
    -0.051577396234484534,
    -0.0037298800795577923,
    0.0400621375848143,
    0.0032066674288935156,
    0.019258530805312517,
    -0.031708495874167124,
    0.024968042690957242,
    0.010869614849035552,
    -0.014360895300448118,
    -0.0014583077924879575,
    -0.02565288836719338,
    -0.03578935181016662,
    0.009919944138415786,
    0.049347947069100215,
    -0.002976595500448714,
    0.03764069417025051,
    -0.024973700556626226,
    -0.018904620385059554,
    -0.016803625673216045,
    0.0033737525684242884,
    0.00782119962157715,
    0.016294640942141454,
    -0.035403872462565315,
    -0.1470437947585232,
    -0.010705401730609606,
    -0.05592307188355575,
    -0.051867007563975685,
    0.08842222745447309,
    0.056339851144362234,
    0.005792088979368554,
    -0.0041162101950138336,
    -0.025428270802997713,
    -0.05550924240834749,
    -0.018959026065122675,
    0.09674798137058868,
    0.011359399520676229,
    -0.0416230003808354,
    -0.05682118674540071,
    0.14682856520872006,
    -0.014444772574401183,
    0.07410968039979388,
    0.06102602296309876,
    0.008114060726049699,
    -0.03473807992712387,
    -0.03479189324790988,
    0.05316341041809408,
    -0.04797452288439996,
    -0.0033627672127326713,
    -0.009407263551977166,
    -0.06029978774767824,
    0.05069863117993931,
    -0.006687330793136954,
    0.041768917727175545,
    -0.052925265350161975,
    -0.04461385351988788,
    -0.025065527126028216,
    -0.01802195956587326,
    -0.004050321182565797,
    -0.016570747990719264,
    -0.1254998190836047,
    -0.002800486968728716,
    0.007375669098664452,
    -0.0021123749673863813,
    0.001739692540712267,
    -0.011169762012376053,
    -0.017174945028096966,
    0.026296924198318746,
    -0.0359760246755123,
    0.06149813287839091,
    0.005799727176842717,
    -0.024575581901181615,
    -0.003952227237180379,
    -0.03203544562289962,
    -0.04219379029684475,
    -0.07370229562557548,
    -0.0016992600295099637,
    0.014942581900548693,
    0.010279201044165982,
    0.021129283672652644,
    -0.001093721480708998,
    -0.03755181999331294,
    -0.028241428478267296,
    -0.05377164884822935,
    0.06383777171654141,
    -0.004759361918254204,
    0.023838872274513506,
    0.07616797558181035,
    -0.007771637509730781,
    0.019716844507387594,
    0.0631536633475468,
    0.030578945638025053,
    0.011616369210275047,
    -0.013498517885205402,
    -0.027392441382878642,
    -0.06583895810464122,
    0.017353226216431157,
    0.060204818743680215,
    0.02912244092253096,
    0.0498401211208315
  ],
  "bias": 0.061430783116381976,
  "metrics": {
    "validAccuracy": 0.664,
    "validBrier": 0.21803549462204844,
    "trainCount": 2800,
    "validCount": 1000,
    "epochs": 220,
    "learningRate": 0.03,
    "l2": 0.0012
  }
}